{
  "name": "AeroGuard CFD Edge Model",
  "version": "0.3.0",
  "trainedAt": "2026-05-24T21:20:31.026Z",
  "caveat": "Round 2 SIL model trained on four CFD pressure-monitor traces using weak labels derived from pressure-window spectral features.",
  "modes": [
    {
      "key": "L2",
      "name": "Longitudinal L2",
      "freq": 1120
    },
    {
      "key": "T1",
      "name": "Transverse T1",
      "freq": 2320
    },
    {
      "key": "T2",
      "name": "Transverse T2",
      "freq": 3820
    }
  ],
  "featureKeys": [
    "meanPressure",
    "acousticRms",
    "peakToPeak",
    "absSlope",
    "growth",
    "concentration",
    "l2Energy",
    "t1Energy",
    "t2Energy"
  ],
  "normalizer": {
    "means": {
      "meanPressure": 5.813238080479099,
      "acousticRms": 1.7276902054035264,
      "peakToPeak": 5.588054758993042,
      "absSlope": 0.045303359022055366,
      "growth": 0.17805852360816787,
      "concentration": 1.3220433935928992,
      "l2Energy": 1.150023043083255,
      "t1Energy": 1.0539803376257337,
      "t2Energy": 0.5845313644537344
    },
    "stds": {
      "meanPressure": 6.42250241602568,
      "acousticRms": 1.4109184771327872,
      "peakToPeak": 4.360817378340238,
      "absSlope": 0.05812595663057467,
      "growth": 1.2229742380743291,
      "concentration": 0.19858596715087373,
      "l2Energy": 0.6640931463837164,
      "t1Energy": 0.6349286564482365,
      "t2Energy": 0.471862373980645
    }
  },
  "riskHead": {
    "type": "tiny-mlp-regression",
    "inputCount": 9,
    "hiddenCount": 8,
    "hiddenActivation": "tanh",
    "outputActivation": "sigmoid",
    "inputWeights": [
      [
        -0.03689137878905956,
        -0.04620243690596927,
        0.07300704640269698,
        -0.024576380063336553,
        0.005871656456591142,
        -0.11681028878222072,
        0.025645805934125483,
        -0.05739078255672696,
        0.11519989262420882
      ],
      [
        0.08585958477497829,
        0.2494168410055974,
        0.17072697147221602,
        0.15601251930974214,
        0.19411311904081646,
        0.12613147223418888,
        -0.031244129649881602,
        -0.04019203979896793,
        0.08571346393530836
      ],
      [
        0.08421190411156573,
        0.23505157738935198,
        0.15853820708043548,
        0.05363610828146394,
        0.10815094693108823,
        0.02870131087710482,
        0.16162095116382152,
        0.11427071632160597,
        -0.10360075350378667
      ],
      [
        0.09994377545926929,
        0.1074169966341416,
        0.009757410258987782,
        -0.017023982166341746,
        0.0857345063483421,
        0.11344433953111177,
        0.14475708975992302,
        0.09501010135969909,
        -0.013294170049158983
      ],
      [
        0.013791137605209162,
        0.08351250277483592,
        0.0875801663059313,
        0.081422271508695,
        0.13844119489425383,
        0.012329798202655663,
        -0.08670875454692474,
        -0.06792963985368206,
        -0.02144633894404411
      ],
      [
        -0.09313342578086312,
        -0.09273843205240649,
        -0.14105195510867385,
        -0.06481391369026776,
        -0.13261044424591753,
        -0.14147308050088278,
        -0.12779108542670908,
        -0.17173409922529437,
        -0.05254857012773187
      ],
      [
        -0.059897127245798994,
        -0.04681159359489572,
        -0.032020905093447495,
        -0.17720856369887764,
        0.008429150023541195,
        -0.01933305631001425,
        -0.11867246901345548,
        -0.11159315121440716,
        -0.11278591125558336
      ],
      [
        0.11890808653717079,
        -0.06928684250983949,
        0.12998887778347062,
        0.09639681516155532,
        0.0006546214593616184,
        0.06278334073773834,
        -0.034961645880009815,
        -0.08322065233386833,
        0.002024591018320559
      ]
    ],
    "hiddenBias": [
      -0.05223326925165706,
      -0.12793471754266084,
      -0.09068355528337277,
      -0.018558621375135045,
      -0.002928460551314546,
      0.057574591323669946,
      0.02522252686935188,
      0.0106473086266653
    ],
    "outputWeights": [
      0.0011845183482163458,
      0.499037362823465,
      0.44143036070033903,
      0.19352996882584303,
      0.13433409671179647,
      -0.3891184821490175,
      -0.22249930148242392,
      0.06837219291204182
    ],
    "outputBias": -0.30878093100975035,
    "output": "instability_risk_0_to_1"
  },
  "modeHead": {
    "type": "spectral-energy-argmax",
    "description": "Classifies the active acoustic mode by comparing learned energy scores around L2/T1/T2 bands.",
    "gains": [
      {
        "key": "L2",
        "meanPositiveEnergy": 1.174566515290708,
        "threshold": 0.824846100834158,
        "gain": 1.5058128599059428
      },
      {
        "key": "T1",
        "meanPositiveEnergy": 1.378317433140113,
        "threshold": 0.7077571203183991,
        "gain": 1.5749801018494847
      },
      {
        "key": "T2",
        "meanPositiveEnergy": 0.1551666307846375,
        "threshold": 0.2873053029419417,
        "gain": 2.1192620033760488
      }
    ],
    "labelCounts": {
      "L2": 36,
      "T1": 5,
      "STABLE": 6
    },
    "fallbackCentroids": [
      {
        "label": "STABLE",
        "center": [
          -0.5361982823709982,
          -0.9310941034178962,
          -0.9328082517667958,
          -0.6205083184797476,
          -0.31721138757048717,
          -0.4101996432101082,
          -1.1639382647300398,
          -1.0574422116017352,
          -0.7964811719222119
        ],
        "count": 6
      },
      {
        "label": "L2",
        "center": [
          0.01278538850627072,
          0.10953876839326981,
          0.12997151957946773,
          0.009302316098869123,
          -0.00403622767799121,
          0.20419011263607006,
          0.1295145001878667,
          0.0779061517232127,
          -0.008947254614462559
        ],
        "count": 36
      },
      {
        "label": "T1",
        "center": [
          0.551383141600044,
          0.3286337916699334,
          0.18357496114798727,
          0.6776333062638391,
          0.40971450436612084,
          -0.9779292391275713,
          0.4642215163234072,
          0.7080063615149503,
          1.0201976395307848
        ],
        "count": 5
      },
      {
        "label": "T2",
        "center": [
          -5.385762757756079e-16,
          4.015700301835673e-17,
          2.834611977766357e-17,
          -1.0925066997641168e-17,
          -7.086529944415893e-17,
          3.177127591746459e-16,
          -8.503835933299071e-17,
          -9.448706592554524e-17,
          -4.724353296277262e-18
        ],
        "count": 0
      }
    ]
  },
  "training": {
    "sourceFiles": [
      {
        "file": "pressure-monitor 2 -rfile.out",
        "rows": 1205,
        "sampleRate": 500000,
        "duration": 0.002408
      },
      {
        "file": "pressure-monitor- 1 rfile.out",
        "rows": 564,
        "sampleRate": 199999.99999999997,
        "duration": 0.002815
      },
      {
        "file": "pressure-monitor-3rfile.out",
        "rows": 74,
        "sampleRate": 99999.99999999999,
        "duration": 0.0007300000000000001
      },
      {
        "file": "pressure-monitor-4rfile.out",
        "rows": 1807,
        "sampleRate": 500000,
        "duration": 0.003612
      }
    ],
    "windowCount": 47,
    "weakLabelCounts": {
      "L2": 36,
      "T1": 5,
      "STABLE": 6
    },
    "riskMae": 0.029632779178727264,
    "modeSelfAccuracy": 1
  }
}